{
  "input_nodes": 5,
  "hidden_nodes": 8,
  "output_nodes": 2,
  "weights_ih": {
    "rows": 8,
    "cols": 5,
    "data": [
      [
        0.9728249682220027,
        -0.07918348167184287,
        0.1431025966541359,
        -0.6552162232738882,
        -0.0045163498605286165
      ],
      [
        -0.02211295587069579,
        -0.5294834023410311,
        1.300709287356749,
        1.228261636540966,
        -1.22217489053382
      ],
      [
        -1.6847187939059838,
        0.9493415280829514,
        -0.797563145595357,
        -0.1673197230489781,
        0.302020381519035
      ],
      [
        0.48337918536221214,
        -1.3832984607748122,
        -1.3717311552676175,
        -0.23910441315402958,
        -1.0167588602136617
      ],
      [
        0.5798234399885613,
        0.568723548659493,
        -0.7124765787350401,
        -0.9194883973280512,
        -0.1415704565214447
      ],
      [
        -0.5239064750830524,
        -0.728706087019046,
        1.4526439613461153,
        -1.4371470689525154,
        -0.5795456209659402
      ],
      [
        1.4485349316210931,
        0.7034990443997522,
        0.13349179006282072,
        0.5433458823247392,
        0.6030245774001998
      ],
      [
        1.0907219539469195,
        -0.49109906110760787,
        -0.5502828584946845,
        -1.1552930890363098,
        1.2702616327554828
      ]
    ]
  },
  "weights_ho": {
    "rows": 2,
    "cols": 8,
    "data": [
      [
        1.4098824486395423,
        -0.6750485945038687,
        -0.5607985622460852,
        -0.6146518211740858,
        -1.2499196385686862,
        -0.07911395895387648,
        0.7152646720169211,
        0.7747353032739991
      ],
      [
        -0.24167153760048168,
        -0.6822250347439145,
        1.9192174997200369,
        0.5863355022422334,
        -0.09377114377703491,
        -0.41714963221946366,
        0.007755846251190801,
        0.5193791226840744
      ]
    ]
  },
  "bias_h": {
    "rows": 8,
    "cols": 1,
    "data": [
      [
        -0.8954862873084106
      ],
      [
        -0.3142063885099289
      ],
      [
        -0.005260867934770833
      ],
      [
        0.16994461523529092
      ],
      [
        1.2276192471329397
      ],
      [
        -1.1223458560526003
      ],
      [
        -0.1400810178674616
      ],
      [
        -1.8668767573988203
      ]
    ]
  },
  "bias_o": {
    "rows": 2,
    "cols": 1,
    "data": [
      [
        1.2873463371737885
      ],
      [
        0.6248316367329387
      ]
    ]
  },
  "learning_rate": 0.1,
  "activation_function": {}
}
